digraph Tree {
node [shape=box, style="filled, rounded", color="black", fontname=helvetica] ;
edge [fontname=helvetica] ;
0 [label=<Fare &le; 10.481<br/>gini = 0.473<br/>samples = 891<br/>value = [549, 342]<br/>class = 0>, fillcolor="#f5cfb4"] ;
1 [label=<Fare &le; 7.133<br/>gini = 0.317<br/>samples = 339<br/>value = [272, 67]<br/>class = 0>, fillcolor="#eba06a"] ;
0 -> 1 [labeldistance=2.5, labelangle=45, headlabel="True"] ;
2 [label=<Fare &le; 7.01<br/>gini = 0.091<br/>samples = 42<br/>value = [40, 2]<br/>class = 0>, fillcolor="#e68743"] ;
1 -> 2 ;
3 [label=<Fare &le; 6.962<br/>gini = 0.133<br/>samples = 28<br/>value = [26, 2]<br/>class = 0>, fillcolor="#e78b48"] ;
2 -> 3 ;
4 [label=<Fare &le; 2.006<br/>gini = 0.074<br/>samples = 26<br/>value = [25, 1]<br/>class = 0>, fillcolor="#e68641"] ;
3 -> 4 ;
5 [label=<gini = 0.124<br/>samples = 15<br/>value = [14, 1]<br/>class = 0>, fillcolor="#e78a47"] ;
4 -> 5 ;
6 [label=<gini = 0.0<br/>samples = 11<br/>value = [11, 0]<br/>class = 0>, fillcolor="#e58139"] ;
4 -> 6 ;
7 [label=<gini = 0.5<br/>samples = 2<br/>value = [1, 1]<br/>class = 0>, fillcolor="#ffffff"] ;
3 -> 7 ;
8 [label=<gini = 0.0<br/>samples = 14<br/>value = [14, 0]<br/>class = 0>, fillcolor="#e58139"] ;
2 -> 8 ;
9 [label=<Fare &le; 7.883<br/>gini = 0.342<br/>samples = 297<br/>value = [232, 65]<br/>class = 0>, fillcolor="#eca470"] ;
1 -> 9 ;
10 [label=<Fare &le; 7.877<br/>gini = 0.411<br/>samples = 142<br/>value = [101, 41]<br/>class = 0>, fillcolor="#f0b489"] ;
9 -> 10 ;
11 [label=<Fare &le; 7.183<br/>gini = 0.392<br/>samples = 138<br/>value = [101, 37]<br/>class = 0>, fillcolor="#efaf82"] ;
10 -> 11 ;
12 [label=<gini = 0.0<br/>samples = 1<br/>value = [0, 1]<br/>class = 1>, fillcolor="#399de5"] ;
11 -> 12 ;
13 [label=<Fare &le; 7.731<br/>gini = 0.387<br/>samples = 137<br/>value = [101, 36]<br/>class = 0>, fillcolor="#eeae80"] ;
11 -> 13 ;
14 [label=<Fare &le; 7.24<br/>gini = 0.316<br/>samples = 56<br/>value = [45, 11]<br/>class = 0>, fillcolor="#eba069"] ;
13 -> 14 ;
15 [label=<Fare &le; 7.227<br/>gini = 0.384<br/>samples = 27<br/>value = [20, 7]<br/>class = 0>, fillcolor="#eead7e"] ;
14 -> 15 ;
16 [label=<gini = 0.375<br/>samples = 12<br/>value = [9, 3]<br/>class = 0>, fillcolor="#eeab7b"] ;
15 -> 16 ;
17 [label=<gini = 0.391<br/>samples = 15<br/>value = [11, 4]<br/>class = 0>, fillcolor="#eeaf81"] ;
15 -> 17 ;
18 [label=<Fare &le; 7.404<br/>gini = 0.238<br/>samples = 29<br/>value = [25, 4]<br/>class = 0>, fillcolor="#e99559"] ;
14 -> 18 ;
19 [label=<Fare &le; 7.281<br/>gini = 0.133<br/>samples = 14<br/>value = [13, 1]<br/>class = 0>, fillcolor="#e78b48"] ;
18 -> 19 ;
20 [label=<gini = 0.142<br/>samples = 13<br/>value = [12, 1]<br/>class = 0>, fillcolor="#e78c49"] ;
19 -> 20 ;
21 [label=<gini = 0.0<br/>samples = 1<br/>value = [1, 0]<br/>class = 0>, fillcolor="#e58139"] ;
19 -> 21 ;
22 [label=<Fare &le; 7.688<br/>gini = 0.32<br/>samples = 15<br/>value = [12, 3]<br/>class = 0>, fillcolor="#eca06a"] ;
18 -> 22 ;
23 [label=<Fare &le; 7.508<br/>gini = 0.355<br/>samples = 13<br/>value = [10, 3]<br/>class = 0>, fillcolor="#eda774"] ;
22 -> 23 ;
24 [label=<gini = 0.444<br/>samples = 3<br/>value = [2, 1]<br/>class = 0>, fillcolor="#f2c09c"] ;
23 -> 24 ;
25 [label=<Fare &le; 7.535<br/>gini = 0.32<br/>samples = 10<br/>value = [8, 2]<br/>class = 0>, fillcolor="#eca06a"] ;
23 -> 25 ;
26 [label=<gini = 0.0<br/>samples = 1<br/>value = [1, 0]<br/>class = 0>, fillcolor="#e58139"] ;
25 -> 26 ;
27 [label=<Fare &le; 7.59<br/>gini = 0.346<br/>samples = 9<br/>value = [7, 2]<br/>class = 0>, fillcolor="#eca572"] ;
25 -> 27 ;
28 [label=<gini = 0.375<br/>samples = 4<br/>value = [3, 1]<br/>class = 0>, fillcolor="#eeab7b"] ;
27 -> 28 ;
29 [label=<Fare &le; 7.64<br/>gini = 0.32<br/>samples = 5<br/>value = [4, 1]<br/>class = 0>, fillcolor="#eca06a"] ;
27 -> 29 ;
30 [label=<gini = 0.0<br/>samples = 1<br/>value = [1, 0]<br/>class = 0>, fillcolor="#e58139"] ;
29 -> 30 ;
31 [label=<gini = 0.375<br/>samples = 4<br/>value = [3, 1]<br/>class = 0>, fillcolor="#eeab7b"] ;
29 -> 31 ;
32 [label=<gini = 0.0<br/>samples = 2<br/>value = [2, 0]<br/>class = 0>, fillcolor="#e58139"] ;
22 -> 32 ;
33 [label=<Fare &le; 7.763<br/>gini = 0.427<br/>samples = 81<br/>value = [56, 25]<br/>class = 0>, fillcolor="#f1b991"] ;
13 -> 33 ;
34 [label=<Fare &le; 7.74<br/>gini = 0.464<br/>samples = 41<br/>value = [26, 15]<br/>class = 0>, fillcolor="#f4caab"] ;
33 -> 34 ;
35 [label=<Fare &le; 7.735<br/>gini = 0.5<br/>samples = 6<br/>value = [3, 3]<br/>class = 0>, fillcolor="#ffffff"] ;
34 -> 35 ;
36 [label=<gini = 0.5<br/>samples = 4<br/>value = [2, 2]<br/>class = 0>, fillcolor="#ffffff"] ;
35 -> 36 ;
37 [label=<gini = 0.5<br/>samples = 2<br/>value = [1, 1]<br/>class = 0>, fillcolor="#ffffff"] ;
35 -> 37 ;
38 [label=<Fare &le; 7.746<br/>gini = 0.451<br/>samples = 35<br/>value = [23, 12]<br/>class = 0>, fillcolor="#f3c3a0"] ;
34 -> 38 ;
39 [label=<gini = 0.0<br/>samples = 1<br/>value = [1, 0]<br/>class = 0>, fillcolor="#e58139"] ;
38 -> 39 ;
40 [label=<gini = 0.457<br/>samples = 34<br/>value = [22, 12]<br/>class = 0>, fillcolor="#f3c6a5"] ;
38 -> 40 ;
41 [label=<Fare &le; 7.781<br/>gini = 0.375<br/>samples = 40<br/>value = [30, 10]<br/>class = 0>, fillcolor="#eeab7b"] ;
33 -> 41 ;
42 [label=<gini = 0.305<br/>samples = 16<br/>value = [13, 3]<br/>class = 0>, fillcolor="#eb9e67"] ;
41 -> 42 ;
43 [label=<Fare &le; 7.792<br/>gini = 0.413<br/>samples = 24<br/>value = [17, 7]<br/>class = 0>, fillcolor="#f0b58b"] ;
41 -> 43 ;
44 [label=<gini = 0.0<br/>samples = 1<br/>value = [0, 1]<br/>class = 1>, fillcolor="#399de5"] ;
43 -> 44 ;
45 [label=<Fare &le; 7.842<br/>gini = 0.386<br/>samples = 23<br/>value = [17, 6]<br/>class = 0>, fillcolor="#eead7f"] ;
43 -> 45 ;
46 [label=<Fare &le; 7.815<br/>gini = 0.444<br/>samples = 9<br/>value = [6, 3]<br/>class = 0>, fillcolor="#f2c09c"] ;
45 -> 46 ;
47 [label=<Fare &le; 7.798<br/>gini = 0.408<br/>samples = 7<br/>value = [5, 2]<br/>class = 0>, fillcolor="#efb388"] ;
46 -> 47 ;
48 [label=<gini = 0.444<br/>samples = 6<br/>value = [4, 2]<br/>class = 0>, fillcolor="#f2c09c"] ;
47 -> 48 ;
49 [label=<gini = 0.0<br/>samples = 1<br/>value = [1, 0]<br/>class = 0>, fillcolor="#e58139"] ;
47 -> 49 ;
50 [label=<gini = 0.5<br/>samples = 2<br/>value = [1, 1]<br/>class = 0>, fillcolor="#ffffff"] ;
46 -> 50 ;
51 [label=<Fare &le; 7.865<br/>gini = 0.337<br/>samples = 14<br/>value = [11, 3]<br/>class = 0>, fillcolor="#eca36f"] ;
45 -> 51 ;
52 [label=<gini = 0.355<br/>samples = 13<br/>value = [10, 3]<br/>class = 0>, fillcolor="#eda774"] ;
51 -> 52 ;
53 [label=<gini = 0.0<br/>samples = 1<br/>value = [1, 0]<br/>class = 0>, fillcolor="#e58139"] ;
51 -> 53 ;
54 [label=<gini = 0.0<br/>samples = 4<br/>value = [0, 4]<br/>class = 1>, fillcolor="#399de5"] ;
10 -> 54 ;
55 [label=<Fare &le; 7.91<br/>gini = 0.262<br/>samples = 155<br/>value = [131, 24]<br/>class = 0>, fillcolor="#ea985d"] ;
9 -> 55 ;
56 [label=<Fare &le; 7.892<br/>gini = 0.05<br/>samples = 39<br/>value = [38, 1]<br/>class = 0>, fillcolor="#e6843e"] ;
55 -> 56 ;
57 [label=<gini = 0.0<br/>samples = 1<br/>value = [1, 0]<br/>class = 0>, fillcolor="#e58139"] ;
56 -> 57 ;
58 [label=<gini = 0.051<br/>samples = 38<br/>value = [37, 1]<br/>class = 0>, fillcolor="#e6843e"] ;
56 -> 58 ;
59 [label=<Fare &le; 8.04<br/>gini = 0.318<br/>samples = 116<br/>value = [93, 23]<br/>class = 0>, fillcolor="#eba06a"] ;
55 -> 59 ;
60 [label=<Fare &le; 7.977<br/>gini = 0.499<br/>samples = 19<br/>value = [10, 9]<br/>class = 0>, fillcolor="#fcf2eb"] ;
59 -> 60 ;
61 [label=<gini = 0.494<br/>samples = 18<br/>value = [10, 8]<br/>class = 0>, fillcolor="#fae6d7"] ;
60 -> 61 ;
62 [label=<gini = 0.0<br/>samples = 1<br/>value = [0, 1]<br/>class = 1>, fillcolor="#399de5"] ;
60 -> 62 ;
63 [label=<Fare &le; 9.288<br/>gini = 0.247<br/>samples = 97<br/>value = [83, 14]<br/>class = 0>, fillcolor="#e9965a"] ;
59 -> 63 ;
64 [label=<Fare &le; 8.698<br/>gini = 0.214<br/>samples = 74<br/>value = [65, 9]<br/>class = 0>, fillcolor="#e99254"] ;
63 -> 64 ;
65 [label=<Fare &le; 8.673<br/>gini = 0.233<br/>samples = 67<br/>value = [58, 9]<br/>class = 0>, fillcolor="#e99558"] ;
64 -> 65 ;
66 [label=<Fare &le; 8.585<br/>gini = 0.213<br/>samples = 66<br/>value = [58, 8]<br/>class = 0>, fillcolor="#e99254"] ;
65 -> 66 ;
67 [label=<Fare &le; 8.487<br/>gini = 0.233<br/>samples = 52<br/>value = [45, 7]<br/>class = 0>, fillcolor="#e99558"] ;
66 -> 67 ;
68 [label=<Fare &le; 8.125<br/>gini = 0.208<br/>samples = 51<br/>value = [45, 6]<br/>class = 0>, fillcolor="#e89253"] ;
67 -> 68 ;
69 [label=<Fare &le; 8.081<br/>gini = 0.236<br/>samples = 44<br/>value = [38, 6]<br/>class = 0>, fillcolor="#e99558"] ;
68 -> 69 ;
70 [label=<gini = 0.206<br/>samples = 43<br/>value = [38, 5]<br/>class = 0>, fillcolor="#e89253"] ;
69 -> 70 ;
71 [label=<gini = 0.0<br/>samples = 1<br/>value = [0, 1]<br/>class = 1>, fillcolor="#399de5"] ;
69 -> 71 ;
72 [label=<gini = 0.0<br/>samples = 7<br/>value = [7, 0]<br/>class = 0>, fillcolor="#e58139"] ;
68 -> 72 ;
73 [label=<gini = 0.0<br/>samples = 1<br/>value = [0, 1]<br/>class = 1>, fillcolor="#399de5"] ;
67 -> 73 ;
74 [label=<Fare &le; 8.658<br/>gini = 0.133<br/>samples = 14<br/>value = [13, 1]<br/>class = 0>, fillcolor="#e78b48"] ;
66 -> 74 ;
75 [label=<gini = 0.0<br/>samples = 1<br/>value = [1, 0]<br/>class = 0>, fillcolor="#e58139"] ;
74 -> 75 ;
76 [label=<gini = 0.142<br/>samples = 13<br/>value = [12, 1]<br/>class = 0>, fillcolor="#e78c49"] ;
74 -> 76 ;
77 [label=<gini = 0.0<br/>samples = 1<br/>value = [0, 1]<br/>class = 1>, fillcolor="#399de5"] ;
65 -> 77 ;
78 [label=<gini = 0.0<br/>samples = 7<br/>value = [7, 0]<br/>class = 0>, fillcolor="#e58139"] ;
64 -> 78 ;
79 [label=<Fare &le; 9.844<br/>gini = 0.34<br/>samples = 23<br/>value = [18, 5]<br/>class = 0>, fillcolor="#eca470"] ;
63 -> 79 ;
80 [label=<Fare &le; 9.84<br/>gini = 0.388<br/>samples = 19<br/>value = [14, 5]<br/>class = 0>, fillcolor="#eeae80"] ;
79 -> 80 ;
81 [label=<Fare &le; 9.706<br/>gini = 0.346<br/>samples = 18<br/>value = [14, 4]<br/>class = 0>, fillcolor="#eca572"] ;
80 -> 81 ;
82 [label=<Fare &le; 9.413<br/>gini = 0.391<br/>samples = 15<br/>value = [11, 4]<br/>class = 0>, fillcolor="#eeaf81"] ;
81 -> 82 ;
83 [label=<gini = 0.5<br/>samples = 2<br/>value = [1, 1]<br/>class = 0>, fillcolor="#ffffff"] ;
82 -> 83 ;
84 [label=<Fare &le; 9.544<br/>gini = 0.355<br/>samples = 13<br/>value = [10, 3]<br/>class = 0>, fillcolor="#eda774"] ;
82 -> 84 ;
85 [label=<Fare &le; 9.492<br/>gini = 0.298<br/>samples = 11<br/>value = [9, 2]<br/>class = 0>, fillcolor="#eb9d65"] ;
84 -> 85 ;
86 [label=<gini = 0.0<br/>samples = 2<br/>value = [2, 0]<br/>class = 0>, fillcolor="#e58139"] ;
85 -> 86 ;
87 [label=<gini = 0.346<br/>samples = 9<br/>value = [7, 2]<br/>class = 0>, fillcolor="#eca572"] ;
85 -> 87 ;
88 [label=<gini = 0.5<br/>samples = 2<br/>value = [1, 1]<br/>class = 0>, fillcolor="#ffffff"] ;
84 -> 88 ;
89 [label=<gini = 0.0<br/>samples = 3<br/>value = [3, 0]<br/>class = 0>, fillcolor="#e58139"] ;
81 -> 89 ;
90 [label=<gini = 0.0<br/>samples = 1<br/>value = [0, 1]<br/>class = 1>, fillcolor="#399de5"] ;
80 -> 90 ;
91 [label=<gini = 0.0<br/>samples = 4<br/>value = [4, 0]<br/>class = 0>, fillcolor="#e58139"] ;
79 -> 91 ;
92 [label=<Fare &le; 74.375<br/>gini = 0.5<br/>samples = 552<br/>value = [277, 275]<br/>class = 0>, fillcolor="#fffefe"] ;
0 -> 92 [labeldistance=2.5, labelangle=-45, headlabel="False"] ;
93 [label=<Fare &le; 69.425<br/>gini = 0.493<br/>samples = 455<br/>value = [254, 201]<br/>class = 0>, fillcolor="#fae5d6"] ;
92 -> 93 ;
94 [label=<Fare &le; 52.277<br/>gini = 0.495<br/>samples = 440<br/>value = [241, 199]<br/>class = 0>, fillcolor="#fae9dc"] ;
93 -> 94 ;
95 [label=<Fare &le; 39.644<br/>gini = 0.489<br/>samples = 403<br/>value = [232, 171]<br/>class = 0>, fillcolor="#f8decb"] ;
94 -> 95 ;
96 [label=<Fare &le; 35.25<br/>gini = 0.492<br/>samples = 370<br/>value = [208, 162]<br/>class = 0>, fillcolor="#f9e3d3"] ;
95 -> 96 ;
97 [label=<Fare &le; 33.25<br/>gini = 0.49<br/>samples = 354<br/>value = [202, 152]<br/>class = 0>, fillcolor="#f9e0ce"] ;
96 -> 97 ;
98 [label=<Fare &le; 15.646<br/>gini = 0.493<br/>samples = 346<br/>value = [194, 152]<br/>class = 0>, fillcolor="#f9e4d4"] ;
97 -> 98 ;
99 [label=<Fare &le; 13.931<br/>gini = 0.476<br/>samples = 136<br/>value = [83, 53]<br/>class = 0>, fillcolor="#f6d1b7"] ;
98 -> 99 ;
100 [label=<Fare &le; 13.646<br/>gini = 0.496<br/>samples = 97<br/>value = [53, 44]<br/>class = 0>, fillcolor="#fbeadd"] ;
99 -> 100 ;
101 [label=<Fare &le; 12.762<br/>gini = 0.492<br/>samples = 94<br/>value = [53, 41]<br/>class = 0>, fillcolor="#f9e2d2"] ;
100 -> 101 ;
102 [label=<Fare &le; 12.281<br/>gini = 0.5<br/>samples = 46<br/>value = [23, 23]<br/>class = 0>, fillcolor="#ffffff"] ;
101 -> 102 ;
103 [label=<Fare &le; 11.371<br/>gini = 0.486<br/>samples = 36<br/>value = [21, 15]<br/>class = 0>, fillcolor="#f8dbc6"] ;
102 -> 103 ;
104 [label=<Fare &le; 10.825<br/>gini = 0.498<br/>samples = 30<br/>value = [16, 14]<br/>class = 0>, fillcolor="#fcefe6"] ;
103 -> 104 ;
105 [label=<Fare &le; 10.508<br/>gini = 0.461<br/>samples = 25<br/>value = [16, 9]<br/>class = 0>, fillcolor="#f4c8a8"] ;
104 -> 105 ;
106 [label=<gini = 0.469<br/>samples = 24<br/>value = [15, 9]<br/>class = 0>, fillcolor="#f5cdb0"] ;
105 -> 106 ;
107 [label=<gini = 0.0<br/>samples = 1<br/>value = [1, 0]<br/>class = 0>, fillcolor="#e58139"] ;
105 -> 107 ;
108 [label=<gini = 0.0<br/>samples = 5<br/>value = [0, 5]<br/>class = 1>, fillcolor="#399de5"] ;
104 -> 108 ;
109 [label=<Fare &le; 11.75<br/>gini = 0.278<br/>samples = 6<br/>value = [5, 1]<br/>class = 0>, fillcolor="#ea9a61"] ;
103 -> 109 ;
110 [label=<gini = 0.0<br/>samples = 4<br/>value = [4, 0]<br/>class = 0>, fillcolor="#e58139"] ;
109 -> 110 ;
111 [label=<Fare &le; 12.137<br/>gini = 0.5<br/>samples = 2<br/>value = [1, 1]<br/>class = 0>, fillcolor="#ffffff"] ;
109 -> 111 ;
112 [label=<gini = 0.0<br/>samples = 1<br/>value = [0, 1]<br/>class = 1>, fillcolor="#399de5"] ;
111 -> 112 ;
113 [label=<gini = 0.0<br/>samples = 1<br/>value = [1, 0]<br/>class = 0>, fillcolor="#e58139"] ;
111 -> 113 ;
114 [label=<Fare &le; 12.5<br/>gini = 0.32<br/>samples = 10<br/>value = [2, 8]<br/>class = 1>, fillcolor="#6ab6ec"] ;
102 -> 114 ;
115 [label=<Fare &le; 12.413<br/>gini = 0.219<br/>samples = 8<br/>value = [1, 7]<br/>class = 1>, fillcolor="#55abe9"] ;
114 -> 115 ;
116 [label=<Fare &le; 12.319<br/>gini = 0.375<br/>samples = 4<br/>value = [1, 3]<br/>class = 1>, fillcolor="#7bbeee"] ;
115 -> 116 ;
117 [label=<gini = 0.0<br/>samples = 1<br/>value = [0, 1]<br/>class = 1>, fillcolor="#399de5"] ;
116 -> 117 ;
118 [label=<gini = 0.444<br/>samples = 3<br/>value = [1, 2]<br/>class = 1>, fillcolor="#9ccef2"] ;
116 -> 118 ;
119 [label=<gini = 0.0<br/>samples = 4<br/>value = [0, 4]<br/>class = 1>, fillcolor="#399de5"] ;
115 -> 119 ;
120 [label=<Fare &le; 12.587<br/>gini = 0.5<br/>samples = 2<br/>value = [1, 1]<br/>class = 0>, fillcolor="#ffffff"] ;
114 -> 120 ;
121 [label=<gini = 0.0<br/>samples = 1<br/>value = [1, 0]<br/>class = 0>, fillcolor="#e58139"] ;
120 -> 121 ;
122 [label=<gini = 0.0<br/>samples = 1<br/>value = [0, 1]<br/>class = 1>, fillcolor="#399de5"] ;
120 -> 122 ;
123 [label=<Fare &le; 12.938<br/>gini = 0.469<br/>samples = 48<br/>value = [30, 18]<br/>class = 0>, fillcolor="#f5cdb0"] ;
101 -> 123 ;
124 [label=<gini = 0.0<br/>samples = 1<br/>value = [1, 0]<br/>class = 0>, fillcolor="#e58139"] ;
123 -> 124 ;
125 [label=<Fare &le; 13.458<br/>gini = 0.473<br/>samples = 47<br/>value = [29, 18]<br/>class = 0>, fillcolor="#f5cfb4"] ;
123 -> 125 ;
126 [label=<Fare &le; 13.208<br/>gini = 0.478<br/>samples = 43<br/>value = [26, 17]<br/>class = 0>, fillcolor="#f6d3ba"] ;
125 -> 126 ;
127 [label=<gini = 0.472<br/>samples = 42<br/>value = [26, 16]<br/>class = 0>, fillcolor="#f5cfb3"] ;
126 -> 127 ;
128 [label=<gini = 0.0<br/>samples = 1<br/>value = [0, 1]<br/>class = 1>, fillcolor="#399de5"] ;
126 -> 128 ;
129 [label=<gini = 0.375<br/>samples = 4<br/>value = [3, 1]<br/>class = 0>, fillcolor="#eeab7b"] ;
125 -> 129 ;
130 [label=<gini = 0.0<br/>samples = 3<br/>value = [0, 3]<br/>class = 1>, fillcolor="#399de5"] ;
100 -> 130 ;
131 [label=<Fare &le; 15.173<br/>gini = 0.355<br/>samples = 39<br/>value = [30, 9]<br/>class = 0>, fillcolor="#eda774"] ;
99 -> 131 ;
132 [label=<Fare &le; 14.479<br/>gini = 0.211<br/>samples = 25<br/>value = [22, 3]<br/>class = 0>, fillcolor="#e99254"] ;
131 -> 132 ;
133 [label=<Fare &le; 14.427<br/>gini = 0.133<br/>samples = 14<br/>value = [13, 1]<br/>class = 0>, fillcolor="#e78b48"] ;
132 -> 133 ;
134 [label=<gini = 0.0<br/>samples = 4<br/>value = [4, 0]<br/>class = 0>, fillcolor="#e58139"] ;
133 -> 134 ;
135 [label=<Fare &le; 14.456<br/>gini = 0.18<br/>samples = 10<br/>value = [9, 1]<br/>class = 0>, fillcolor="#e88f4f"] ;
133 -> 135 ;
136 [label=<gini = 0.245<br/>samples = 7<br/>value = [6, 1]<br/>class = 0>, fillcolor="#e9965a"] ;
135 -> 136 ;
137 [label=<gini = 0.0<br/>samples = 3<br/>value = [3, 0]<br/>class = 0>, fillcolor="#e58139"] ;
135 -> 137 ;
138 [label=<Fare &le; 14.75<br/>gini = 0.298<br/>samples = 11<br/>value = [9, 2]<br/>class = 0>, fillcolor="#eb9d65"] ;
132 -> 138 ;
139 [label=<gini = 0.408<br/>samples = 7<br/>value = [5, 2]<br/>class = 0>, fillcolor="#efb388"] ;
138 -> 139 ;
140 [label=<gini = 0.0<br/>samples = 4<br/>value = [4, 0]<br/>class = 0>, fillcolor="#e58139"] ;
138 -> 140 ;
141 [label=<Fare &le; 15.373<br/>gini = 0.49<br/>samples = 14<br/>value = [8, 6]<br/>class = 0>, fillcolor="#f8e0ce"] ;
131 -> 141 ;
142 [label=<gini = 0.48<br/>samples = 5<br/>value = [2, 3]<br/>class = 1>, fillcolor="#bddef6"] ;
141 -> 142 ;
143 [label=<Fare &le; 15.525<br/>gini = 0.444<br/>samples = 9<br/>value = [6, 3]<br/>class = 0>, fillcolor="#f2c09c"] ;
141 -> 143 ;
144 [label=<gini = 0.469<br/>samples = 8<br/>value = [5, 3]<br/>class = 0>, fillcolor="#f5cdb0"] ;
143 -> 144 ;
145 [label=<gini = 0.0<br/>samples = 1<br/>value = [1, 0]<br/>class = 0>, fillcolor="#e58139"] ;
143 -> 145 ;
146 [label=<Fare &le; 16.05<br/>gini = 0.498<br/>samples = 210<br/>value = [111, 99]<br/>class = 0>, fillcolor="#fcf1ea"] ;
98 -> 146 ;
147 [label=<Fare &le; 15.8<br/>gini = 0.32<br/>samples = 10<br/>value = [2, 8]<br/>class = 1>, fillcolor="#6ab6ec"] ;
146 -> 147 ;
148 [label=<gini = 0.0<br/>samples = 3<br/>value = [0, 3]<br/>class = 1>, fillcolor="#399de5"] ;
147 -> 148 ;
149 [label=<Fare &le; 15.875<br/>gini = 0.408<br/>samples = 7<br/>value = [2, 5]<br/>class = 1>, fillcolor="#88c4ef"] ;
147 -> 149 ;
150 [label=<gini = 0.5<br/>samples = 4<br/>value = [2, 2]<br/>class = 0>, fillcolor="#ffffff"] ;
149 -> 150 ;
151 [label=<gini = 0.0<br/>samples = 3<br/>value = [0, 3]<br/>class = 1>, fillcolor="#399de5"] ;
149 -> 151 ;
152 [label=<Fare &le; 16.4<br/>gini = 0.496<br/>samples = 200<br/>value = [109, 91]<br/>class = 0>, fillcolor="#fbeade"] ;
146 -> 152 ;
153 [label=<gini = 0.346<br/>samples = 9<br/>value = [7, 2]<br/>class = 0>, fillcolor="#eca572"] ;
152 -> 153 ;
154 [label=<Fare &le; 19.733<br/>gini = 0.498<br/>samples = 191<br/>value = [102, 89]<br/>class = 0>, fillcolor="#fcefe6"] ;
152 -> 154 ;
155 [label=<Fare &le; 18.375<br/>gini = 0.432<br/>samples = 19<br/>value = [6, 13]<br/>class = 1>, fillcolor="#94caf1"] ;
154 -> 155 ;
156 [label=<Fare &le; 17.6<br/>gini = 0.469<br/>samples = 8<br/>value = [5, 3]<br/>class = 0>, fillcolor="#f5cdb0"] ;
155 -> 156 ;
157 [label=<gini = 0.0<br/>samples = 3<br/>value = [0, 3]<br/>class = 1>, fillcolor="#399de5"] ;
156 -> 157 ;
158 [label=<gini = 0.0<br/>samples = 5<br/>value = [5, 0]<br/>class = 0>, fillcolor="#e58139"] ;
156 -> 158 ;
159 [label=<Fare &le; 19.023<br/>gini = 0.165<br/>samples = 11<br/>value = [1, 10]<br/>class = 1>, fillcolor="#4da7e8"] ;
155 -> 159 ;
160 [label=<Fare &le; 18.769<br/>gini = 0.32<br/>samples = 5<br/>value = [1, 4]<br/>class = 1>, fillcolor="#6ab6ec"] ;
159 -> 160 ;
161 [label=<gini = 0.0<br/>samples = 3<br/>value = [0, 3]<br/>class = 1>, fillcolor="#399de5"] ;
160 -> 161 ;
162 [label=<gini = 0.5<br/>samples = 2<br/>value = [1, 1]<br/>class = 0>, fillcolor="#ffffff"] ;
160 -> 162 ;
163 [label=<gini = 0.0<br/>samples = 6<br/>value = [0, 6]<br/>class = 1>, fillcolor="#399de5"] ;
159 -> 163 ;
164 [label=<Fare &le; 20.231<br/>gini = 0.493<br/>samples = 172<br/>value = [96, 76]<br/>class = 0>, fillcolor="#fae5d6"] ;
154 -> 164 ;
165 [label=<gini = 0.0<br/>samples = 4<br/>value = [4, 0]<br/>class = 0>, fillcolor="#e58139"] ;
164 -> 165 ;
166 [label=<Fare &le; 31.331<br/>gini = 0.495<br/>samples = 168<br/>value = [92, 76]<br/>class = 0>, fillcolor="#fae9dd"] ;
164 -> 166 ;
167 [label=<Fare &le; 31.137<br/>gini = 0.493<br/>samples = 159<br/>value = [89, 70]<br/>class = 0>, fillcolor="#f9e4d5"] ;
166 -> 167 ;
168 [label=<Fare &le; 29.85<br/>gini = 0.497<br/>samples = 152<br/>value = [82, 70]<br/>class = 0>, fillcolor="#fbede2"] ;
167 -> 168 ;
169 [label=<Fare &le; 27.36<br/>gini = 0.491<br/>samples = 134<br/>value = [76, 58]<br/>class = 0>, fillcolor="#f9e1d0"] ;
168 -> 169 ;
170 [label=<Fare &le; 25.927<br/>gini = 0.5<br/>samples = 107<br/>value = [55, 52]<br/>class = 0>, fillcolor="#fef8f4"] ;
169 -> 170 ;
171 [label=<Fare &le; 23.35<br/>gini = 0.466<br/>samples = 46<br/>value = [29, 17]<br/>class = 0>, fillcolor="#f4cbad"] ;
170 -> 171 ;
172 [label=<Fare &le; 21.852<br/>gini = 0.497<br/>samples = 28<br/>value = [13, 15]<br/>class = 1>, fillcolor="#e5f2fc"] ;
171 -> 172 ;
173 [label=<Fare &le; 21.038<br/>gini = 0.444<br/>samples = 18<br/>value = [12, 6]<br/>class = 0>, fillcolor="#f2c09c"] ;
172 -> 173 ;
174 [label=<Fare &le; 20.788<br/>gini = 0.497<br/>samples = 13<br/>value = [7, 6]<br/>class = 0>, fillcolor="#fbede3"] ;
173 -> 174 ;
175 [label=<Fare &le; 20.387<br/>gini = 0.49<br/>samples = 7<br/>value = [3, 4]<br/>class = 1>, fillcolor="#cee6f8"] ;
174 -> 175 ;
176 [label=<gini = 0.5<br/>samples = 2<br/>value = [1, 1]<br/>class = 0>, fillcolor="#ffffff"] ;
175 -> 176 ;
177 [label=<Fare &le; 20.55<br/>gini = 0.48<br/>samples = 5<br/>value = [2, 3]<br/>class = 1>, fillcolor="#bddef6"] ;
175 -> 177 ;
178 [label=<gini = 0.444<br/>samples = 3<br/>value = [1, 2]<br/>class = 1>, fillcolor="#9ccef2"] ;
177 -> 178 ;
179 [label=<gini = 0.5<br/>samples = 2<br/>value = [1, 1]<br/>class = 0>, fillcolor="#ffffff"] ;
177 -> 179 ;
180 [label=<gini = 0.444<br/>samples = 6<br/>value = [4, 2]<br/>class = 0>, fillcolor="#f2c09c"] ;
174 -> 180 ;
181 [label=<gini = 0.0<br/>samples = 5<br/>value = [5, 0]<br/>class = 0>, fillcolor="#e58139"] ;
173 -> 181 ;
182 [label=<Fare &le; 22.762<br/>gini = 0.18<br/>samples = 10<br/>value = [1, 9]<br/>class = 1>, fillcolor="#4fa8e8"] ;
172 -> 182 ;
183 [label=<Fare &le; 22.442<br/>gini = 0.375<br/>samples = 4<br/>value = [1, 3]<br/>class = 1>, fillcolor="#7bbeee"] ;
182 -> 183 ;
184 [label=<gini = 0.0<br/>samples = 3<br/>value = [0, 3]<br/>class = 1>, fillcolor="#399de5"] ;
183 -> 184 ;
185 [label=<gini = 0.0<br/>samples = 1<br/>value = [1, 0]<br/>class = 0>, fillcolor="#e58139"] ;
183 -> 185 ;
186 [label=<gini = 0.0<br/>samples = 6<br/>value = [0, 6]<br/>class = 1>, fillcolor="#399de5"] ;
182 -> 186 ;
187 [label=<Fare &le; 24.808<br/>gini = 0.198<br/>samples = 18<br/>value = [16, 2]<br/>class = 0>, fillcolor="#e89152"] ;
171 -> 187 ;
188 [label=<Fare &le; 23.725<br/>gini = 0.278<br/>samples = 12<br/>value = [10, 2]<br/>class = 0>, fillcolor="#ea9a61"] ;
187 -> 188 ;
189 [label=<gini = 0.0<br/>samples = 2<br/>value = [2, 0]<br/>class = 0>, fillcolor="#e58139"] ;
188 -> 189 ;
190 [label=<Fare &le; 24.075<br/>gini = 0.32<br/>samples = 10<br/>value = [8, 2]<br/>class = 0>, fillcolor="#eca06a"] ;
188 -> 190 ;
191 [label=<gini = 0.5<br/>samples = 2<br/>value = [1, 1]<br/>class = 0>, fillcolor="#ffffff"] ;
190 -> 191 ;
192 [label=<gini = 0.219<br/>samples = 8<br/>value = [7, 1]<br/>class = 0>, fillcolor="#e99355"] ;
190 -> 192 ;
193 [label=<gini = 0.0<br/>samples = 6<br/>value = [6, 0]<br/>class = 0>, fillcolor="#e58139"] ;
187 -> 193 ;
194 [label=<Fare &le; 25.965<br/>gini = 0.489<br/>samples = 61<br/>value = [26, 35]<br/>class = 1>, fillcolor="#cce6f8"] ;
170 -> 194 ;
195 [label=<gini = 0.0<br/>samples = 2<br/>value = [0, 2]<br/>class = 1>, fillcolor="#399de5"] ;
194 -> 195 ;
196 [label=<Fare &le; 26.125<br/>gini = 0.493<br/>samples = 59<br/>value = [26, 33]<br/>class = 1>, fillcolor="#d5eaf9"] ;
194 -> 196 ;
197 [label=<gini = 0.499<br/>samples = 31<br/>value = [16, 15]<br/>class = 0>, fillcolor="#fdf7f3"] ;
196 -> 197 ;
198 [label=<Fare &le; 26.469<br/>gini = 0.459<br/>samples = 28<br/>value = [10, 18]<br/>class = 1>, fillcolor="#a7d3f3"] ;
196 -> 198 ;
199 [label=<Fare &le; 26.267<br/>gini = 0.298<br/>samples = 11<br/>value = [2, 9]<br/>class = 1>, fillcolor="#65b3eb"] ;
198 -> 199 ;
200 [label=<gini = 0.444<br/>samples = 6<br/>value = [2, 4]<br/>class = 1>, fillcolor="#9ccef2"] ;
199 -> 200 ;
201 [label=<gini = 0.0<br/>samples = 5<br/>value = [0, 5]<br/>class = 1>, fillcolor="#399de5"] ;
199 -> 201 ;
202 [label=<Fare &le; 26.775<br/>gini = 0.498<br/>samples = 17<br/>value = [8, 9]<br/>class = 1>, fillcolor="#e9f4fc"] ;
198 -> 202 ;
203 [label=<gini = 0.498<br/>samples = 15<br/>value = [7, 8]<br/>class = 1>, fillcolor="#e6f3fc"] ;
202 -> 203 ;
204 [label=<gini = 0.5<br/>samples = 2<br/>value = [1, 1]<br/>class = 0>, fillcolor="#ffffff"] ;
202 -> 204 ;
205 [label=<Fare &le; 27.825<br/>gini = 0.346<br/>samples = 27<br/>value = [21, 6]<br/>class = 0>, fillcolor="#eca572"] ;
169 -> 205 ;
206 [label=<Fare &le; 27.735<br/>gini = 0.444<br/>samples = 9<br/>value = [6, 3]<br/>class = 0>, fillcolor="#f2c09c"] ;
205 -> 206 ;
207 [label=<gini = 0.32<br/>samples = 5<br/>value = [4, 1]<br/>class = 0>, fillcolor="#eca06a"] ;
206 -> 207 ;
208 [label=<gini = 0.5<br/>samples = 4<br/>value = [2, 2]<br/>class = 0>, fillcolor="#ffffff"] ;
206 -> 208 ;
209 [label=<Fare &le; 28.856<br/>gini = 0.278<br/>samples = 18<br/>value = [15, 3]<br/>class = 0>, fillcolor="#ea9a61"] ;
205 -> 209 ;
210 [label=<gini = 0.0<br/>samples = 8<br/>value = [8, 0]<br/>class = 0>, fillcolor="#e58139"] ;
209 -> 210 ;
211 [label=<Fare &le; 29.062<br/>gini = 0.42<br/>samples = 10<br/>value = [7, 3]<br/>class = 0>, fillcolor="#f0b78e"] ;
209 -> 211 ;
212 [label=<gini = 0.0<br/>samples = 2<br/>value = [0, 2]<br/>class = 1>, fillcolor="#399de5"] ;
211 -> 212 ;
213 [label=<Fare &le; 29.413<br/>gini = 0.219<br/>samples = 8<br/>value = [7, 1]<br/>class = 0>, fillcolor="#e99355"] ;
211 -> 213 ;
214 [label=<gini = 0.0<br/>samples = 5<br/>value = [5, 0]<br/>class = 0>, fillcolor="#e58139"] ;
213 -> 214 ;
215 [label=<gini = 0.444<br/>samples = 3<br/>value = [2, 1]<br/>class = 0>, fillcolor="#f2c09c"] ;
213 -> 215 ;
216 [label=<Fare &le; 30.598<br/>gini = 0.444<br/>samples = 18<br/>value = [6, 12]<br/>class = 1>, fillcolor="#9ccef2"] ;
168 -> 216 ;
217 [label=<Fare &le; 30.035<br/>gini = 0.355<br/>samples = 13<br/>value = [3, 10]<br/>class = 1>, fillcolor="#74baed"] ;
216 -> 217 ;
218 [label=<gini = 0.278<br/>samples = 6<br/>value = [1, 5]<br/>class = 1>, fillcolor="#61b1ea"] ;
217 -> 218 ;
219 [label=<Fare &le; 30.285<br/>gini = 0.408<br/>samples = 7<br/>value = [2, 5]<br/>class = 1>, fillcolor="#88c4ef"] ;
217 -> 219 ;
220 [label=<gini = 0.5<br/>samples = 2<br/>value = [1, 1]<br/>class = 0>, fillcolor="#ffffff"] ;
219 -> 220 ;
221 [label=<gini = 0.32<br/>samples = 5<br/>value = [1, 4]<br/>class = 1>, fillcolor="#6ab6ec"] ;
219 -> 221 ;
222 [label=<Fare &le; 30.848<br/>gini = 0.48<br/>samples = 5<br/>value = [3, 2]<br/>class = 0>, fillcolor="#f6d5bd"] ;
216 -> 222 ;
223 [label=<gini = 0.0<br/>samples = 2<br/>value = [2, 0]<br/>class = 0>, fillcolor="#e58139"] ;
222 -> 223 ;
224 [label=<gini = 0.444<br/>samples = 3<br/>value = [1, 2]<br/>class = 1>, fillcolor="#9ccef2"] ;
222 -> 224 ;
225 [label=<gini = 0.0<br/>samples = 7<br/>value = [7, 0]<br/>class = 0>, fillcolor="#e58139"] ;
167 -> 225 ;
226 [label=<Fare &le; 31.854<br/>gini = 0.444<br/>samples = 9<br/>value = [3, 6]<br/>class = 1>, fillcolor="#9ccef2"] ;
166 -> 226 ;
227 [label=<gini = 0.375<br/>samples = 4<br/>value = [1, 3]<br/>class = 1>, fillcolor="#7bbeee"] ;
226 -> 227 ;
228 [label=<Fare &le; 32.41<br/>gini = 0.48<br/>samples = 5<br/>value = [2, 3]<br/>class = 1>, fillcolor="#bddef6"] ;
226 -> 228 ;
229 [label=<gini = 0.0<br/>samples = 1<br/>value = [1, 0]<br/>class = 0>, fillcolor="#e58139"] ;
228 -> 229 ;
230 [label=<Fare &le; 32.75<br/>gini = 0.375<br/>samples = 4<br/>value = [1, 3]<br/>class = 1>, fillcolor="#7bbeee"] ;
228 -> 230 ;
231 [label=<gini = 0.0<br/>samples = 1<br/>value = [0, 1]<br/>class = 1>, fillcolor="#399de5"] ;
230 -> 231 ;
232 [label=<gini = 0.444<br/>samples = 3<br/>value = [1, 2]<br/>class = 1>, fillcolor="#9ccef2"] ;
230 -> 232 ;
233 [label=<gini = 0.0<br/>samples = 8<br/>value = [8, 0]<br/>class = 0>, fillcolor="#e58139"] ;
97 -> 233 ;
234 [label=<Fare &le; 38.75<br/>gini = 0.469<br/>samples = 16<br/>value = [6, 10]<br/>class = 1>, fillcolor="#b0d8f5"] ;
96 -> 234 ;
235 [label=<Fare &le; 37.752<br/>gini = 0.494<br/>samples = 9<br/>value = [4, 5]<br/>class = 1>, fillcolor="#d7ebfa"] ;
234 -> 235 ;
236 [label=<Fare &le; 36.125<br/>gini = 0.469<br/>samples = 8<br/>value = [3, 5]<br/>class = 1>, fillcolor="#b0d8f5"] ;
235 -> 236 ;
237 [label=<gini = 0.375<br/>samples = 4<br/>value = [1, 3]<br/>class = 1>, fillcolor="#7bbeee"] ;
236 -> 237 ;
238 [label=<Fare &le; 36.877<br/>gini = 0.5<br/>samples = 4<br/>value = [2, 2]<br/>class = 0>, fillcolor="#ffffff"] ;
236 -> 238 ;
239 [label=<gini = 0.5<br/>samples = 2<br/>value = [1, 1]<br/>class = 0>, fillcolor="#ffffff"] ;
238 -> 239 ;
240 [label=<gini = 0.5<br/>samples = 2<br/>value = [1, 1]<br/>class = 0>, fillcolor="#ffffff"] ;
238 -> 240 ;
241 [label=<gini = 0.0<br/>samples = 1<br/>value = [1, 0]<br/>class = 0>, fillcolor="#e58139"] ;
235 -> 241 ;
242 [label=<Fare &le; 39.5<br/>gini = 0.408<br/>samples = 7<br/>value = [2, 5]<br/>class = 1>, fillcolor="#88c4ef"] ;
234 -> 242 ;
243 [label=<Fare &le; 39.2<br/>gini = 0.32<br/>samples = 5<br/>value = [1, 4]<br/>class = 1>, fillcolor="#6ab6ec"] ;
242 -> 243 ;
244 [label=<gini = 0.375<br/>samples = 4<br/>value = [1, 3]<br/>class = 1>, fillcolor="#7bbeee"] ;
243 -> 244 ;
245 [label=<gini = 0.0<br/>samples = 1<br/>value = [0, 1]<br/>class = 1>, fillcolor="#399de5"] ;
243 -> 245 ;
246 [label=<gini = 0.5<br/>samples = 2<br/>value = [1, 1]<br/>class = 0>, fillcolor="#ffffff"] ;
242 -> 246 ;
247 [label=<Fare &le; 48.3<br/>gini = 0.397<br/>samples = 33<br/>value = [24, 9]<br/>class = 0>, fillcolor="#efb083"] ;
95 -> 247 ;
248 [label=<Fare &le; 41.99<br/>gini = 0.198<br/>samples = 18<br/>value = [16, 2]<br/>class = 0>, fillcolor="#e89152"] ;
247 -> 248 ;
249 [label=<Fare &le; 40.852<br/>gini = 0.32<br/>samples = 10<br/>value = [8, 2]<br/>class = 0>, fillcolor="#eca06a"] ;
248 -> 249 ;
250 [label=<gini = 0.0<br/>samples = 7<br/>value = [7, 0]<br/>class = 0>, fillcolor="#e58139"] ;
249 -> 250 ;
251 [label=<gini = 0.444<br/>samples = 3<br/>value = [1, 2]<br/>class = 1>, fillcolor="#9ccef2"] ;
249 -> 251 ;
252 [label=<gini = 0.0<br/>samples = 8<br/>value = [8, 0]<br/>class = 0>, fillcolor="#e58139"] ;
248 -> 252 ;
253 [label=<Fare &le; 49.502<br/>gini = 0.498<br/>samples = 15<br/>value = [8, 7]<br/>class = 0>, fillcolor="#fcefe6"] ;
247 -> 253 ;
254 [label=<gini = 0.0<br/>samples = 1<br/>value = [0, 1]<br/>class = 1>, fillcolor="#399de5"] ;
253 -> 254 ;
255 [label=<Fare &le; 50.987<br/>gini = 0.49<br/>samples = 14<br/>value = [8, 6]<br/>class = 0>, fillcolor="#f8e0ce"] ;
253 -> 255 ;
256 [label=<Fare &le; 49.752<br/>gini = 0.375<br/>samples = 4<br/>value = [3, 1]<br/>class = 0>, fillcolor="#eeab7b"] ;
255 -> 256 ;
257 [label=<gini = 0.5<br/>samples = 2<br/>value = [1, 1]<br/>class = 0>, fillcolor="#ffffff"] ;
256 -> 257 ;
258 [label=<gini = 0.0<br/>samples = 2<br/>value = [2, 0]<br/>class = 0>, fillcolor="#e58139"] ;
256 -> 258 ;
259 [label=<Fare &le; 51.671<br/>gini = 0.5<br/>samples = 10<br/>value = [5, 5]<br/>class = 0>, fillcolor="#ffffff"] ;
255 -> 259 ;
260 [label=<gini = 0.0<br/>samples = 1<br/>value = [0, 1]<br/>class = 1>, fillcolor="#399de5"] ;
259 -> 260 ;
261 [label=<Fare &le; 51.931<br/>gini = 0.494<br/>samples = 9<br/>value = [5, 4]<br/>class = 0>, fillcolor="#fae6d7"] ;
259 -> 261 ;
262 [label=<gini = 0.5<br/>samples = 2<br/>value = [1, 1]<br/>class = 0>, fillcolor="#ffffff"] ;
261 -> 262 ;
263 [label=<gini = 0.49<br/>samples = 7<br/>value = [4, 3]<br/>class = 0>, fillcolor="#f8e0ce"] ;
261 -> 263 ;
264 [label=<Fare &le; 60.288<br/>gini = 0.368<br/>samples = 37<br/>value = [9, 28]<br/>class = 1>, fillcolor="#79bced"] ;
94 -> 264 ;
265 [label=<Fare &le; 56.712<br/>gini = 0.302<br/>samples = 27<br/>value = [5, 22]<br/>class = 1>, fillcolor="#66b3eb"] ;
264 -> 265 ;
266 [label=<Fare &le; 52.827<br/>gini = 0.375<br/>samples = 20<br/>value = [5, 15]<br/>class = 1>, fillcolor="#7bbeee"] ;
265 -> 266 ;
267 [label=<gini = 0.0<br/>samples = 3<br/>value = [0, 3]<br/>class = 1>, fillcolor="#399de5"] ;
266 -> 267 ;
268 [label=<Fare &le; 54.05<br/>gini = 0.415<br/>samples = 17<br/>value = [5, 12]<br/>class = 1>, fillcolor="#8bc6f0"] ;
266 -> 268 ;
269 [label=<gini = 0.48<br/>samples = 5<br/>value = [2, 3]<br/>class = 1>, fillcolor="#bddef6"] ;
268 -> 269 ;
270 [label=<Fare &le; 55.671<br/>gini = 0.375<br/>samples = 12<br/>value = [3, 9]<br/>class = 1>, fillcolor="#7bbeee"] ;
268 -> 270 ;
271 [label=<gini = 0.0<br/>samples = 3<br/>value = [0, 3]<br/>class = 1>, fillcolor="#399de5"] ;
270 -> 271 ;
272 [label=<Fare &le; 56.198<br/>gini = 0.444<br/>samples = 9<br/>value = [3, 6]<br/>class = 1>, fillcolor="#9ccef2"] ;
270 -> 272 ;
273 [label=<gini = 0.5<br/>samples = 2<br/>value = [1, 1]<br/>class = 0>, fillcolor="#ffffff"] ;
272 -> 273 ;
274 [label=<gini = 0.408<br/>samples = 7<br/>value = [2, 5]<br/>class = 1>, fillcolor="#88c4ef"] ;
272 -> 274 ;
275 [label=<gini = 0.0<br/>samples = 7<br/>value = [0, 7]<br/>class = 1>, fillcolor="#399de5"] ;
265 -> 275 ;
276 [label=<Fare &le; 62.669<br/>gini = 0.48<br/>samples = 10<br/>value = [4, 6]<br/>class = 1>, fillcolor="#bddef6"] ;
264 -> 276 ;
277 [label=<gini = 0.0<br/>samples = 3<br/>value = [3, 0]<br/>class = 0>, fillcolor="#e58139"] ;
276 -> 277 ;
278 [label=<Fare &le; 65.8<br/>gini = 0.245<br/>samples = 7<br/>value = [1, 6]<br/>class = 1>, fillcolor="#5aade9"] ;
276 -> 278 ;
279 [label=<gini = 0.0<br/>samples = 3<br/>value = [0, 3]<br/>class = 1>, fillcolor="#399de5"] ;
278 -> 279 ;
280 [label=<Fare &le; 67.95<br/>gini = 0.375<br/>samples = 4<br/>value = [1, 3]<br/>class = 1>, fillcolor="#7bbeee"] ;
278 -> 280 ;
281 [label=<gini = 0.5<br/>samples = 2<br/>value = [1, 1]<br/>class = 0>, fillcolor="#ffffff"] ;
280 -> 281 ;
282 [label=<gini = 0.0<br/>samples = 2<br/>value = [0, 2]<br/>class = 1>, fillcolor="#399de5"] ;
280 -> 282 ;
283 [label=<Fare &le; 70.275<br/>gini = 0.231<br/>samples = 15<br/>value = [13, 2]<br/>class = 0>, fillcolor="#e99457"] ;
93 -> 283 ;
284 [label=<gini = 0.0<br/>samples = 7<br/>value = [7, 0]<br/>class = 0>, fillcolor="#e58139"] ;
283 -> 284 ;
285 [label=<Fare &le; 72.392<br/>gini = 0.375<br/>samples = 8<br/>value = [6, 2]<br/>class = 0>, fillcolor="#eeab7b"] ;
283 -> 285 ;
286 [label=<Fare &le; 71.142<br/>gini = 0.444<br/>samples = 3<br/>value = [1, 2]<br/>class = 1>, fillcolor="#9ccef2"] ;
285 -> 286 ;
287 [label=<gini = 0.5<br/>samples = 2<br/>value = [1, 1]<br/>class = 0>, fillcolor="#ffffff"] ;
286 -> 287 ;
288 [label=<gini = 0.0<br/>samples = 1<br/>value = [0, 1]<br/>class = 1>, fillcolor="#399de5"] ;
286 -> 288 ;
289 [label=<gini = 0.0<br/>samples = 5<br/>value = [5, 0]<br/>class = 0>, fillcolor="#e58139"] ;
285 -> 289 ;
290 [label=<Fare &le; 77.008<br/>gini = 0.362<br/>samples = 97<br/>value = [23, 74]<br/>class = 1>, fillcolor="#77bbed"] ;
92 -> 290 ;
291 [label=<gini = 0.0<br/>samples = 5<br/>value = [0, 5]<br/>class = 1>, fillcolor="#399de5"] ;
290 -> 291 ;
292 [label=<Fare &le; 77.623<br/>gini = 0.375<br/>samples = 92<br/>value = [23, 69]<br/>class = 1>, fillcolor="#7bbeee"] ;
290 -> 292 ;
293 [label=<gini = 0.0<br/>samples = 2<br/>value = [2, 0]<br/>class = 0>, fillcolor="#e58139"] ;
292 -> 293 ;
294 [label=<Fare &le; 211.419<br/>gini = 0.358<br/>samples = 90<br/>value = [21, 69]<br/>class = 1>, fillcolor="#75bbed"] ;
292 -> 294 ;
295 [label=<Fare &le; 78.558<br/>gini = 0.327<br/>samples = 73<br/>value = [15, 58]<br/>class = 1>, fillcolor="#6cb6ec"] ;
294 -> 295 ;
296 [label=<gini = 0.0<br/>samples = 5<br/>value = [0, 5]<br/>class = 1>, fillcolor="#399de5"] ;
295 -> 296 ;
297 [label=<Fare &le; 79.825<br/>gini = 0.344<br/>samples = 68<br/>value = [15, 53]<br/>class = 1>, fillcolor="#71b9ec"] ;
295 -> 297 ;
298 [label=<Fare &le; 79.425<br/>gini = 0.494<br/>samples = 9<br/>value = [4, 5]<br/>class = 1>, fillcolor="#d7ebfa"] ;
297 -> 298 ;
299 [label=<Fare &le; 79.025<br/>gini = 0.5<br/>samples = 6<br/>value = [3, 3]<br/>class = 0>, fillcolor="#ffffff"] ;
298 -> 299 ;
300 [label=<gini = 0.5<br/>samples = 2<br/>value = [1, 1]<br/>class = 0>, fillcolor="#ffffff"] ;
299 -> 300 ;
301 [label=<gini = 0.5<br/>samples = 4<br/>value = [2, 2]<br/>class = 0>, fillcolor="#ffffff"] ;
299 -> 301 ;
302 [label=<gini = 0.444<br/>samples = 3<br/>value = [1, 2]<br/>class = 1>, fillcolor="#9ccef2"] ;
298 -> 302 ;
303 [label=<Fare &le; 159.165<br/>gini = 0.303<br/>samples = 59<br/>value = [11, 48]<br/>class = 1>, fillcolor="#66b3eb"] ;
297 -> 303 ;
304 [label=<Fare &le; 149.035<br/>gini = 0.324<br/>samples = 54<br/>value = [11, 43]<br/>class = 1>, fillcolor="#6cb6ec"] ;
303 -> 304 ;
305 [label=<Fare &le; 116.638<br/>gini = 0.282<br/>samples = 47<br/>value = [8, 39]<br/>class = 1>, fillcolor="#62b1ea"] ;
304 -> 305 ;
306 [label=<Fare &le; 99.963<br/>gini = 0.327<br/>samples = 34<br/>value = [7, 27]<br/>class = 1>, fillcolor="#6cb6ec"] ;
305 -> 306 ;
307 [label=<Fare &le; 84.987<br/>gini = 0.227<br/>samples = 23<br/>value = [3, 20]<br/>class = 1>, fillcolor="#57ace9"] ;
306 -> 307 ;
308 [label=<Fare &le; 83.317<br/>gini = 0.32<br/>samples = 10<br/>value = [2, 8]<br/>class = 1>, fillcolor="#6ab6ec"] ;
307 -> 308 ;
309 [label=<Fare &le; 82.015<br/>gini = 0.219<br/>samples = 8<br/>value = [1, 7]<br/>class = 1>, fillcolor="#55abe9"] ;
308 -> 309 ;
310 [label=<gini = 0.0<br/>samples = 3<br/>value = [0, 3]<br/>class = 1>, fillcolor="#399de5"] ;
309 -> 310 ;
311 [label=<Fare &le; 82.665<br/>gini = 0.32<br/>samples = 5<br/>value = [1, 4]<br/>class = 1>, fillcolor="#6ab6ec"] ;
309 -> 311 ;
312 [label=<gini = 0.5<br/>samples = 2<br/>value = [1, 1]<br/>class = 0>, fillcolor="#ffffff"] ;
311 -> 312 ;
313 [label=<gini = 0.0<br/>samples = 3<br/>value = [0, 3]<br/>class = 1>, fillcolor="#399de5"] ;
311 -> 313 ;
314 [label=<gini = 0.5<br/>samples = 2<br/>value = [1, 1]<br/>class = 0>, fillcolor="#ffffff"] ;
308 -> 314 ;
315 [label=<Fare &le; 89.552<br/>gini = 0.142<br/>samples = 13<br/>value = [1, 12]<br/>class = 1>, fillcolor="#49a5e7"] ;
307 -> 315 ;
316 [label=<gini = 0.0<br/>samples = 5<br/>value = [0, 5]<br/>class = 1>, fillcolor="#399de5"] ;
315 -> 316 ;
317 [label=<Fare &le; 90.54<br/>gini = 0.219<br/>samples = 8<br/>value = [1, 7]<br/>class = 1>, fillcolor="#55abe9"] ;
315 -> 317 ;
318 [label=<gini = 0.375<br/>samples = 4<br/>value = [1, 3]<br/>class = 1>, fillcolor="#7bbeee"] ;
317 -> 318 ;
319 [label=<gini = 0.0<br/>samples = 4<br/>value = [0, 4]<br/>class = 1>, fillcolor="#399de5"] ;
317 -> 319 ;
320 [label=<Fare &le; 109.892<br/>gini = 0.463<br/>samples = 11<br/>value = [4, 7]<br/>class = 1>, fillcolor="#aad5f4"] ;
306 -> 320 ;
321 [label=<Fare &le; 107.663<br/>gini = 0.5<br/>samples = 4<br/>value = [2, 2]<br/>class = 0>, fillcolor="#ffffff"] ;
320 -> 321 ;
322 [label=<gini = 0.5<br/>samples = 2<br/>value = [1, 1]<br/>class = 0>, fillcolor="#ffffff"] ;
321 -> 322 ;
323 [label=<gini = 0.5<br/>samples = 2<br/>value = [1, 1]<br/>class = 0>, fillcolor="#ffffff"] ;
321 -> 323 ;
324 [label=<Fare &le; 112.079<br/>gini = 0.408<br/>samples = 7<br/>value = [2, 5]<br/>class = 1>, fillcolor="#88c4ef"] ;
320 -> 324 ;
325 [label=<gini = 0.375<br/>samples = 4<br/>value = [1, 3]<br/>class = 1>, fillcolor="#7bbeee"] ;
324 -> 325 ;
326 [label=<gini = 0.444<br/>samples = 3<br/>value = [1, 2]<br/>class = 1>, fillcolor="#9ccef2"] ;
324 -> 326 ;
327 [label=<Fare &le; 135.067<br/>gini = 0.142<br/>samples = 13<br/>value = [1, 12]<br/>class = 1>, fillcolor="#49a5e7"] ;
305 -> 327 ;
328 [label=<gini = 0.0<br/>samples = 8<br/>value = [0, 8]<br/>class = 1>, fillcolor="#399de5"] ;
327 -> 328 ;
329 [label=<Fare &le; 141.077<br/>gini = 0.32<br/>samples = 5<br/>value = [1, 4]<br/>class = 1>, fillcolor="#6ab6ec"] ;
327 -> 329 ;
330 [label=<gini = 0.444<br/>samples = 3<br/>value = [1, 2]<br/>class = 1>, fillcolor="#9ccef2"] ;
329 -> 330 ;
331 [label=<gini = 0.0<br/>samples = 2<br/>value = [0, 2]<br/>class = 1>, fillcolor="#399de5"] ;
329 -> 331 ;
332 [label=<Fare &le; 152.506<br/>gini = 0.49<br/>samples = 7<br/>value = [3, 4]<br/>class = 1>, fillcolor="#cee6f8"] ;
304 -> 332 ;
333 [label=<gini = 0.5<br/>samples = 4<br/>value = [2, 2]<br/>class = 0>, fillcolor="#ffffff"] ;
332 -> 333 ;
334 [label=<gini = 0.444<br/>samples = 3<br/>value = [1, 2]<br/>class = 1>, fillcolor="#9ccef2"] ;
332 -> 334 ;
335 [label=<gini = 0.0<br/>samples = 5<br/>value = [0, 5]<br/>class = 1>, fillcolor="#399de5"] ;
303 -> 335 ;
336 [label=<Fare &le; 224.652<br/>gini = 0.457<br/>samples = 17<br/>value = [6, 11]<br/>class = 1>, fillcolor="#a5d2f3"] ;
294 -> 336 ;
337 [label=<gini = 0.0<br/>samples = 2<br/>value = [2, 0]<br/>class = 0>, fillcolor="#e58139"] ;
336 -> 337 ;
338 [label=<Fare &le; 387.665<br/>gini = 0.391<br/>samples = 15<br/>value = [4, 11]<br/>class = 1>, fillcolor="#81c1ee"] ;
336 -> 338 ;
339 [label=<Fare &le; 262.688<br/>gini = 0.444<br/>samples = 12<br/>value = [4, 8]<br/>class = 1>, fillcolor="#9ccef2"] ;
338 -> 339 ;
340 [label=<Fare &le; 254.948<br/>gini = 0.375<br/>samples = 8<br/>value = [2, 6]<br/>class = 1>, fillcolor="#7bbeee"] ;
339 -> 340 ;
341 [label=<Fare &le; 237.523<br/>gini = 0.444<br/>samples = 6<br/>value = [2, 4]<br/>class = 1>, fillcolor="#9ccef2"] ;
340 -> 341 ;
342 [label=<gini = 0.375<br/>samples = 4<br/>value = [1, 3]<br/>class = 1>, fillcolor="#7bbeee"] ;
341 -> 342 ;
343 [label=<gini = 0.5<br/>samples = 2<br/>value = [1, 1]<br/>class = 0>, fillcolor="#ffffff"] ;
341 -> 343 ;
344 [label=<gini = 0.0<br/>samples = 2<br/>value = [0, 2]<br/>class = 1>, fillcolor="#399de5"] ;
340 -> 344 ;
345 [label=<gini = 0.5<br/>samples = 4<br/>value = [2, 2]<br/>class = 0>, fillcolor="#ffffff"] ;
339 -> 345 ;
346 [label=<gini = 0.0<br/>samples = 3<br/>value = [0, 3]<br/>class = 1>, fillcolor="#399de5"] ;
338 -> 346 ;
}
